
\data\
ngram 1=6
ngram 2=5
ngram 3=2

\1-grams:
-1	<s>
-1	</s>
-2	the	-0.1
-3	i	-0.2
-4	MP	-0.3
-5	and	-0.4


\2-grams:
-2	<s> the
-4	<s> i
-5	the MP	-0.3
-6	MP and	-0.4
-9	MP </s>	-0.5
-10	i MP	-0.6


\3-grams:
-2	<s> the MP
-4	<s> i and
-5	the MP and
-6	MP and i
-10	i MP </s>

\end\


