
\data\
ngram 1=3
ngram 2=3
ngram 3=3

\1-grams:
-99	<s>	-1
-10	</s>
-1	man	-2
-1	the	-1
-3	and	-1

\2-grams:
-2	man the	-1
-3	and the
-5	the man	-2
-1	man and	-2
-1	man </s>	-1

\3-grams:
-5	man the man
-4	the man and
-3	and the man
-6	the man </s>

\end\


